digraph Tree {
node [shape=box, fontname="helvetica"] ;
edge [fontname="helvetica"] ;
0 [label="x[68] <= 0.5\ngini = 0.303\nsamples = 479\nvalue = [390, 89]"] ;
1 [label="x[59] <= 0.5\ngini = 0.271\nsamples = 445\nvalue = [373, 72]"] ;
0 -> 1 [labeldistance=2.5, labelangle=45, headlabel="True"] ;
2 [label="x[439] <= 0.5\ngini = 0.252\nsamples = 433\nvalue = [369, 64]"] ;
1 -> 2 ;
3 [label="x[81] <= 0.5\ngini = 0.238\nsamples = 427\nvalue = [368, 59]"] ;
2 -> 3 ;
4 [label="x[135] <= 0.5\ngini = 0.227\nsamples = 422\nvalue = [367, 55]"] ;
3 -> 4 ;
5 [label="x[104] <= 0.5\ngini = 0.201\nsamples = 397\nvalue = [352, 45]"] ;
4 -> 5 ;
6 [label="x[43] <= 0.5\ngini = 0.188\nsamples = 391\nvalue = [350, 41]"] ;
5 -> 6 ;
7 [label="x[116] <= 0.5\ngini = 0.18\nsamples = 389\nvalue = [350, 39]"] ;
6 -> 7 ;
8 [label="x[37] <= 0.5\ngini = 0.173\nsamples = 387\nvalue = [350, 37]"] ;
7 -> 8 ;
9 [label="x[88] <= 0.5\ngini = 0.165\nsamples = 385\nvalue = [350, 35]"] ;
8 -> 9 ;
10 [label="x[204] <= 0.5\ngini = 0.157\nsamples = 383\nvalue = [350, 33]"] ;
9 -> 10 ;
11 [label="x[30] <= 0.5\ngini = 0.146\nsamples = 378\nvalue = [348, 30]"] ;
10 -> 11 ;
12 [label="x[260] <= 0.5\ngini = 0.142\nsamples = 377\nvalue = [348, 29]"] ;
11 -> 12 ;
13 [label="x[359] <= 0.5\ngini = 0.138\nsamples = 376\nvalue = [348, 28]"] ;
12 -> 13 ;
14 [label="x[288] <= 0.5\ngini = 0.134\nsamples = 375\nvalue = [348, 27]"] ;
13 -> 14 ;
15 [label="x[325] <= 0.5\ngini = 0.129\nsamples = 374\nvalue = [348, 26]"] ;
14 -> 15 ;
16 [label="x[432] <= 0.5\ngini = 0.125\nsamples = 373\nvalue = [348, 25]"] ;
15 -> 16 ;
17 [label="x[194] <= 0.5\ngini = 0.121\nsamples = 372\nvalue = [348, 24]"] ;
16 -> 17 ;
18 [label="x[302] <= 0.5\ngini = 0.116\nsamples = 371\nvalue = [348, 23]"] ;
17 -> 18 ;
19 [label="x[160] <= 0.5\ngini = 0.112\nsamples = 370\nvalue = [348, 22]"] ;
18 -> 19 ;
20 [label="x[210] <= 0.5\ngini = 0.107\nsamples = 369\nvalue = [348, 21]"] ;
19 -> 20 ;
21 [label="x[70] <= 0.5\ngini = 0.103\nsamples = 368\nvalue = [348, 20]"] ;
20 -> 21 ;
22 [label="x[174] <= 0.5\ngini = 0.098\nsamples = 367\nvalue = [348, 19]"] ;
21 -> 22 ;
23 [label="x[449] <= 0.5\ngini = 0.094\nsamples = 366\nvalue = [348, 18]"] ;
22 -> 23 ;
24 [label="x[251] <= 0.5\ngini = 0.089\nsamples = 365\nvalue = [348, 17]"] ;
23 -> 24 ;
25 [label="x[229] <= 0.5\ngini = 0.084\nsamples = 364\nvalue = [348, 16]"] ;
24 -> 25 ;
26 [label="x[303] <= 0.5\ngini = 0.079\nsamples = 363\nvalue = [348, 15]"] ;
25 -> 26 ;
27 [label="x[391] <= 0.5\ngini = 0.07\nsamples = 359\nvalue = [346, 13]"] ;
26 -> 27 ;
28 [label="x[1] <= 853992.0\ngini = 0.06\nsamples = 353\nvalue = [342, 11]"] ;
27 -> 28 ;
29 [label="x[200] <= 0.5\ngini = 0.055\nsamples = 351\nvalue = [341, 10]"] ;
28 -> 29 ;
30 [label="x[343] <= 0.5\ngini = 0.05\nsamples = 349\nvalue = [340, 9]"] ;
29 -> 30 ;
31 [label="x[159] <= 0.5\ngini = 0.045\nsamples = 347\nvalue = [339, 8]"] ;
30 -> 31 ;
32 [label="x[324] <= 0.5\ngini = 0.04\nsamples = 345\nvalue = [338, 7]"] ;
31 -> 32 ;
33 [label="x[374] <= 0.5\ngini = 0.034\nsamples = 343\nvalue = [337, 6]"] ;
32 -> 33 ;
34 [label="x[393] <= 0.5\ngini = 0.029\nsamples = 341\nvalue = [336, 5]"] ;
33 -> 34 ;
35 [label="x[1] <= 83850.0\ngini = 0.023\nsamples = 338\nvalue = [334, 4]"] ;
34 -> 35 ;
36 [label="x[103] <= 0.5\ngini = 0.444\nsamples = 3\nvalue = [2, 1]"] ;
35 -> 36 ;
37 [label="gini = 0.0\nsamples = 2\nvalue = [2, 0]"] ;
36 -> 37 ;
38 [label="gini = 0.0\nsamples = 1\nvalue = [0, 1]"] ;
36 -> 38 ;
39 [label="x[426] <= 0.5\ngini = 0.018\nsamples = 335\nvalue = [332, 3]"] ;
35 -> 39 ;
40 [label="x[298] <= 0.5\ngini = 0.012\nsamples = 332\nvalue = [330, 2]"] ;
39 -> 40 ;
41 [label="x[355] <= 0.5\ngini = 0.006\nsamples = 326\nvalue = [325, 1]"] ;
40 -> 41 ;
42 [label="gini = 0.0\nsamples = 317\nvalue = [317, 0]"] ;
41 -> 42 ;
43 [label="x[3] <= 1.5\ngini = 0.198\nsamples = 9\nvalue = [8, 1]"] ;
41 -> 43 ;
44 [label="gini = 0.0\nsamples = 1\nvalue = [0, 1]"] ;
43 -> 44 ;
45 [label="gini = 0.0\nsamples = 8\nvalue = [8, 0]"] ;
43 -> 45 ;
46 [label="x[3] <= 7.0\ngini = 0.278\nsamples = 6\nvalue = [5, 1]"] ;
40 -> 46 ;
47 [label="gini = 0.0\nsamples = 5\nvalue = [5, 0]"] ;
46 -> 47 ;
48 [label="gini = 0.0\nsamples = 1\nvalue = [0, 1]"] ;
46 -> 48 ;
49 [label="x[1] <= 233253.0\ngini = 0.444\nsamples = 3\nvalue = [2, 1]"] ;
39 -> 49 ;
50 [label="gini = 0.0\nsamples = 2\nvalue = [2, 0]"] ;
49 -> 50 ;
51 [label="gini = 0.0\nsamples = 1\nvalue = [0, 1]"] ;
49 -> 51 ;
52 [label="x[1] <= 311266.5\ngini = 0.444\nsamples = 3\nvalue = [2, 1]"] ;
34 -> 52 ;
53 [label="gini = 0.0\nsamples = 2\nvalue = [2, 0]"] ;
52 -> 53 ;
54 [label="gini = 0.0\nsamples = 1\nvalue = [0, 1]"] ;
52 -> 54 ;
55 [label="x[3] <= 2.0\ngini = 0.5\nsamples = 2\nvalue = [1, 1]"] ;
33 -> 55 ;
56 [label="gini = 0.0\nsamples = 1\nvalue = [0, 1]"] ;
55 -> 56 ;
57 [label="gini = 0.0\nsamples = 1\nvalue = [1, 0]"] ;
55 -> 57 ;
58 [label="x[3] <= 5.5\ngini = 0.5\nsamples = 2\nvalue = [1, 1]"] ;
32 -> 58 ;
59 [label="gini = 0.0\nsamples = 1\nvalue = [1, 0]"] ;
58 -> 59 ;
60 [label="gini = 0.0\nsamples = 1\nvalue = [0, 1]"] ;
58 -> 60 ;
61 [label="x[3] <= 7.5\ngini = 0.5\nsamples = 2\nvalue = [1, 1]"] ;
31 -> 61 ;
62 [label="gini = 0.0\nsamples = 1\nvalue = [1, 0]"] ;
61 -> 62 ;
63 [label="gini = 0.0\nsamples = 1\nvalue = [0, 1]"] ;
61 -> 63 ;
64 [label="x[2] <= 72.5\ngini = 0.5\nsamples = 2\nvalue = [1, 1]"] ;
30 -> 64 ;
65 [label="gini = 0.0\nsamples = 1\nvalue = [1, 0]"] ;
64 -> 65 ;
66 [label="gini = 0.0\nsamples = 1\nvalue = [0, 1]"] ;
64 -> 66 ;
67 [label="x[3] <= 5.5\ngini = 0.5\nsamples = 2\nvalue = [1, 1]"] ;
29 -> 67 ;
68 [label="gini = 0.0\nsamples = 1\nvalue = [1, 0]"] ;
67 -> 68 ;
69 [label="gini = 0.0\nsamples = 1\nvalue = [0, 1]"] ;
67 -> 69 ;
70 [label="x[0] <= 16.0\ngini = 0.5\nsamples = 2\nvalue = [1, 1]"] ;
28 -> 70 ;
71 [label="gini = 0.0\nsamples = 1\nvalue = [0, 1]"] ;
70 -> 71 ;
72 [label="gini = 0.0\nsamples = 1\nvalue = [1, 0]"] ;
70 -> 72 ;
73 [label="x[3] <= 9.5\ngini = 0.444\nsamples = 6\nvalue = [4, 2]"] ;
27 -> 73 ;
74 [label="x[3] <= 5.5\ngini = 0.32\nsamples = 5\nvalue = [4, 1]"] ;
73 -> 74 ;
75 [label="x[1] <= 299846.0\ngini = 0.5\nsamples = 2\nvalue = [1, 1]"] ;
74 -> 75 ;
76 [label="gini = 0.0\nsamples = 1\nvalue = [1, 0]"] ;
75 -> 76 ;
77 [label="gini = 0.0\nsamples = 1\nvalue = [0, 1]"] ;
75 -> 77 ;
78 [label="gini = 0.0\nsamples = 3\nvalue = [3, 0]"] ;
74 -> 78 ;
79 [label="gini = 0.0\nsamples = 1\nvalue = [0, 1]"] ;
73 -> 79 ;
80 [label="x[3] <= 5.0\ngini = 0.5\nsamples = 4\nvalue = [2, 2]"] ;
26 -> 80 ;
81 [label="gini = 0.0\nsamples = 2\nvalue = [0, 2]"] ;
80 -> 81 ;
82 [label="gini = 0.0\nsamples = 2\nvalue = [2, 0]"] ;
80 -> 82 ;
83 [label="gini = 0.0\nsamples = 1\nvalue = [0, 1]"] ;
25 -> 83 ;
84 [label="gini = 0.0\nsamples = 1\nvalue = [0, 1]"] ;
24 -> 84 ;
85 [label="gini = 0.0\nsamples = 1\nvalue = [0, 1]"] ;
23 -> 85 ;
86 [label="gini = 0.0\nsamples = 1\nvalue = [0, 1]"] ;
22 -> 86 ;
87 [label="gini = 0.0\nsamples = 1\nvalue = [0, 1]"] ;
21 -> 87 ;
88 [label="gini = 0.0\nsamples = 1\nvalue = [0, 1]"] ;
20 -> 88 ;
89 [label="gini = 0.0\nsamples = 1\nvalue = [0, 1]"] ;
19 -> 89 ;
90 [label="gini = 0.0\nsamples = 1\nvalue = [0, 1]"] ;
18 -> 90 ;
91 [label="gini = 0.0\nsamples = 1\nvalue = [0, 1]"] ;
17 -> 91 ;
92 [label="gini = 0.0\nsamples = 1\nvalue = [0, 1]"] ;
16 -> 92 ;
93 [label="gini = 0.0\nsamples = 1\nvalue = [0, 1]"] ;
15 -> 93 ;
94 [label="gini = 0.0\nsamples = 1\nvalue = [0, 1]"] ;
14 -> 94 ;
95 [label="gini = 0.0\nsamples = 1\nvalue = [0, 1]"] ;
13 -> 95 ;
96 [label="gini = 0.0\nsamples = 1\nvalue = [0, 1]"] ;
12 -> 96 ;
97 [label="gini = 0.0\nsamples = 1\nvalue = [0, 1]"] ;
11 -> 97 ;
98 [label="x[2] <= 53.5\ngini = 0.48\nsamples = 5\nvalue = [2, 3]"] ;
10 -> 98 ;
99 [label="gini = 0.0\nsamples = 3\nvalue = [0, 3]"] ;
98 -> 99 ;
100 [label="gini = 0.0\nsamples = 2\nvalue = [2, 0]"] ;
98 -> 100 ;
101 [label="gini = 0.0\nsamples = 2\nvalue = [0, 2]"] ;
9 -> 101 ;
102 [label="gini = 0.0\nsamples = 2\nvalue = [0, 2]"] ;
8 -> 102 ;
103 [label="gini = 0.0\nsamples = 2\nvalue = [0, 2]"] ;
7 -> 103 ;
104 [label="gini = 0.0\nsamples = 2\nvalue = [0, 2]"] ;
6 -> 104 ;
105 [label="x[2] <= 58.5\ngini = 0.444\nsamples = 6\nvalue = [2, 4]"] ;
5 -> 105 ;
106 [label="gini = 0.0\nsamples = 2\nvalue = [2, 0]"] ;
105 -> 106 ;
107 [label="gini = 0.0\nsamples = 4\nvalue = [0, 4]"] ;
105 -> 107 ;
108 [label="x[1] <= 226873.0\ngini = 0.48\nsamples = 25\nvalue = [15, 10]"] ;
4 -> 108 ;
109 [label="x[2] <= 75.0\ngini = 0.32\nsamples = 15\nvalue = [12, 3]"] ;
108 -> 109 ;
110 [label="gini = 0.0\nsamples = 9\nvalue = [9, 0]"] ;
109 -> 110 ;
111 [label="x[2] <= 80.5\ngini = 0.5\nsamples = 6\nvalue = [3, 3]"] ;
109 -> 111 ;
112 [label="gini = 0.0\nsamples = 2\nvalue = [0, 2]"] ;
111 -> 112 ;
113 [label="x[164] <= 0.5\ngini = 0.375\nsamples = 4\nvalue = [3, 1]"] ;
111 -> 113 ;
114 [label="gini = 0.0\nsamples = 3\nvalue = [3, 0]"] ;
113 -> 114 ;
115 [label="gini = 0.0\nsamples = 1\nvalue = [0, 1]"] ;
113 -> 115 ;
116 [label="x[1] <= 264620.5\ngini = 0.42\nsamples = 10\nvalue = [3, 7]"] ;
108 -> 116 ;
117 [label="x[310] <= 0.5\ngini = 0.219\nsamples = 8\nvalue = [1, 7]"] ;
116 -> 117 ;
118 [label="gini = 0.0\nsamples = 7\nvalue = [0, 7]"] ;
117 -> 118 ;
119 [label="gini = 0.0\nsamples = 1\nvalue = [1, 0]"] ;
117 -> 119 ;
120 [label="gini = 0.0\nsamples = 2\nvalue = [2, 0]"] ;
116 -> 120 ;
121 [label="x[1] <= 293819.5\ngini = 0.32\nsamples = 5\nvalue = [1, 4]"] ;
3 -> 121 ;
122 [label="gini = 0.0\nsamples = 4\nvalue = [0, 4]"] ;
121 -> 122 ;
123 [label="gini = 0.0\nsamples = 1\nvalue = [1, 0]"] ;
121 -> 123 ;
124 [label="x[1] <= 247735.0\ngini = 0.278\nsamples = 6\nvalue = [1, 5]"] ;
2 -> 124 ;
125 [label="gini = 0.0\nsamples = 1\nvalue = [1, 0]"] ;
124 -> 125 ;
126 [label="gini = 0.0\nsamples = 5\nvalue = [0, 5]"] ;
124 -> 126 ;
127 [label="x[2] <= 6.5\ngini = 0.444\nsamples = 12\nvalue = [4, 8]"] ;
1 -> 127 ;
128 [label="x[3] <= 5.5\ngini = 0.444\nsamples = 6\nvalue = [4, 2]"] ;
127 -> 128 ;
129 [label="gini = 0.0\nsamples = 1\nvalue = [0, 1]"] ;
128 -> 129 ;
130 [label="x[1] <= 200700.0\ngini = 0.32\nsamples = 5\nvalue = [4, 1]"] ;
128 -> 130 ;
131 [label="gini = 0.0\nsamples = 1\nvalue = [0, 1]"] ;
130 -> 131 ;
132 [label="gini = 0.0\nsamples = 4\nvalue = [4, 0]"] ;
130 -> 132 ;
133 [label="gini = 0.0\nsamples = 6\nvalue = [0, 6]"] ;
127 -> 133 ;
134 [label="x[1] <= 219833.5\ngini = 0.5\nsamples = 34\nvalue = [17, 17]"] ;
0 -> 134 [labeldistance=2.5, labelangle=-45, headlabel="False"] ;
135 [label="x[1] <= 189819.5\ngini = 0.391\nsamples = 15\nvalue = [11, 4]"] ;
134 -> 135 ;
136 [label="x[3] <= 8.5\ngini = 0.48\nsamples = 5\nvalue = [2, 3]"] ;
135 -> 136 ;
137 [label="x[2] <= 27.5\ngini = 0.444\nsamples = 3\nvalue = [2, 1]"] ;
136 -> 137 ;
138 [label="gini = 0.0\nsamples = 1\nvalue = [0, 1]"] ;
137 -> 138 ;
139 [label="gini = 0.0\nsamples = 2\nvalue = [2, 0]"] ;
137 -> 139 ;
140 [label="gini = 0.0\nsamples = 2\nvalue = [0, 2]"] ;
136 -> 140 ;
141 [label="x[2] <= 58.5\ngini = 0.18\nsamples = 10\nvalue = [9, 1]"] ;
135 -> 141 ;
142 [label="gini = 0.0\nsamples = 8\nvalue = [8, 0]"] ;
141 -> 142 ;
143 [label="x[3] <= 3.5\ngini = 0.5\nsamples = 2\nvalue = [1, 1]"] ;
141 -> 143 ;
144 [label="gini = 0.0\nsamples = 1\nvalue = [0, 1]"] ;
143 -> 144 ;
145 [label="gini = 0.0\nsamples = 1\nvalue = [1, 0]"] ;
143 -> 145 ;
146 [label="x[3] <= 11.5\ngini = 0.432\nsamples = 19\nvalue = [6, 13]"] ;
134 -> 146 ;
147 [label="x[282] <= 0.5\ngini = 0.305\nsamples = 16\nvalue = [3, 13]"] ;
146 -> 147 ;
148 [label="x[383] <= 0.5\ngini = 0.231\nsamples = 15\nvalue = [2, 13]"] ;
147 -> 148 ;
149 [label="x[347] <= 0.5\ngini = 0.133\nsamples = 14\nvalue = [1, 13]"] ;
148 -> 149 ;
150 [label="gini = 0.0\nsamples = 11\nvalue = [0, 11]"] ;
149 -> 150 ;
151 [label="x[1] <= 241320.0\ngini = 0.444\nsamples = 3\nvalue = [1, 2]"] ;
149 -> 151 ;
152 [label="gini = 0.0\nsamples = 2\nvalue = [0, 2]"] ;
151 -> 152 ;
153 [label="gini = 0.0\nsamples = 1\nvalue = [1, 0]"] ;
151 -> 153 ;
154 [label="gini = 0.0\nsamples = 1\nvalue = [1, 0]"] ;
148 -> 154 ;
155 [label="gini = 0.0\nsamples = 1\nvalue = [1, 0]"] ;
147 -> 155 ;
156 [label="gini = 0.0\nsamples = 3\nvalue = [3, 0]"] ;
146 -> 156 ;
}